digraph Tree {
node [shape=box, style="filled", color="black"] ;
0 [label="traffic_density <= 2730.998\ngini = 0.492\nsamples = 51885\nvalue = [29126, 22759]\nclass = Accident", fillcolor="#f9e3d4"] ;
1 [label="Lt_Sidewlk <= 2.5\ngini = 0.321\nsamples = 23816\nvalue = [4775, 19041]\nclass = No Accident", fillcolor="#6bb6ec"] ;
0 -> 1 [labeldistance=2.5, labelangle=45, headlabel="True"] ;
2 [label="Rt_Sidewlk <= 9.5\ngini = 0.22\nsamples = 8804\nvalue = [1108, 7696]\nclass = No Accident", fillcolor="#56abe9"] ;
1 -> 2 ;
3 [label="Op_Dir_SL <= 32.5\ngini = 0.173\nsamples = 7172\nvalue = [687, 6485]\nclass = No Accident", fillcolor="#4ea7e8"] ;
2 -> 3 ;
4 [label="Surface_Wd <= 22.5\ngini = 0.246\nsamples = 3543\nvalue = [509, 3034]\nclass = No Accident", fillcolor="#5aade9"] ;
3 -> 4 ;
5 [label="gini = 0.343\nsamples = 1313\nvalue = [289, 1024]\nclass = No Accident", fillcolor="#71b9ec"] ;
4 -> 5 ;
6 [label="gini = 0.178\nsamples = 2230\nvalue = [220, 2010]\nclass = No Accident", fillcolor="#4fa8e8"] ;
4 -> 6 ;
7 [label="traffic_density <= 28.739\ngini = 0.093\nsamples = 3629\nvalue = [178, 3451]\nclass = No Accident", fillcolor="#43a2e6"] ;
3 -> 7 ;
8 [label="gini = 0.066\nsamples = 2902\nvalue = [99, 2803]\nclass = No Accident", fillcolor="#40a0e6"] ;
7 -> 8 ;
9 [label="gini = 0.194\nsamples = 727\nvalue = [79, 648]\nclass = No Accident", fillcolor="#51a9e8"] ;
7 -> 9 ;
10 [label="Rt_Sidewlk <= 20.0\ngini = 0.383\nsamples = 1632\nvalue = [421, 1211]\nclass = No Accident", fillcolor="#7ebfee"] ;
2 -> 10 ;
11 [label="Surface_Wd <= 42.5\ngini = 0.357\nsamples = 1481\nvalue = [345, 1136]\nclass = No Accident", fillcolor="#75bbed"] ;
10 -> 11 ;
12 [label="gini = 0.376\nsamples = 1332\nvalue = [335, 997]\nclass = No Accident", fillcolor="#7cbeee"] ;
11 -> 12 ;
13 [label="gini = 0.125\nsamples = 149\nvalue = [10, 139]\nclass = No Accident", fillcolor="#47a4e7"] ;
11 -> 13 ;
14 [label="traffic_density <= 1.673\ngini = 0.5\nsamples = 151\nvalue = [76, 75]\nclass = Accident", fillcolor="#fffdfc"] ;
10 -> 14 ;
15 [label="gini = 0.111\nsamples = 17\nvalue = [1, 16]\nclass = No Accident", fillcolor="#45a3e7"] ;
14 -> 15 ;
16 [label="gini = 0.493\nsamples = 134\nvalue = [75, 59]\nclass = Accident", fillcolor="#f9e4d5"] ;
14 -> 16 ;
17 [label="ROW_Width <= 38.5\ngini = 0.369\nsamples = 15012\nvalue = [3667, 11345]\nclass = No Accident", fillcolor="#79bded"] ;
1 -> 17 ;
18 [label="Rt_Sidewlk <= 6.5\ngini = 0.44\nsamples = 2733\nvalue = [892, 1841]\nclass = No Accident", fillcolor="#99ccf2"] ;
17 -> 18 ;
19 [label="Terrain_1 <= 0.5\ngini = 0.43\nsamples = 2434\nvalue = [763, 1671]\nclass = No Accident", fillcolor="#93caf1"] ;
18 -> 19 ;
20 [label="gini = 0.473\nsamples = 449\nvalue = [172, 277]\nclass = No Accident", fillcolor="#b4daf5"] ;
19 -> 20 ;
21 [label="gini = 0.418\nsamples = 1985\nvalue = [591, 1394]\nclass = No Accident", fillcolor="#8dc7f0"] ;
19 -> 21 ;
22 [label="ROW_Width <= 31.5\ngini = 0.491\nsamples = 299\nvalue = [129, 170]\nclass = No Accident", fillcolor="#cfe7f9"] ;
18 -> 22 ;
23 [label="gini = 0.308\nsamples = 42\nvalue = [8, 34]\nclass = No Accident", fillcolor="#68b4eb"] ;
22 -> 23 ;
24 [label="gini = 0.498\nsamples = 257\nvalue = [121, 136]\nclass = No Accident", fillcolor="#e9f4fc"] ;
22 -> 24 ;
25 [label="Lt_Sidewlk <= 4.584\ngini = 0.35\nsamples = 12279\nvalue = [2775, 9504]\nclass = No Accident", fillcolor="#73baed"] ;
17 -> 25 ;
26 [label="AADT <= 2012.0\ngini = 0.153\nsamples = 649\nvalue = [54, 595]\nclass = No Accident", fillcolor="#4ba6e7"] ;
25 -> 26 ;
27 [label="gini = 0.207\nsamples = 436\nvalue = [51, 385]\nclass = No Accident", fillcolor="#53aae8"] ;
26 -> 27 ;
28 [label="gini = 0.028\nsamples = 213\nvalue = [3, 210]\nclass = No Accident", fillcolor="#3c9ee5"] ;
26 -> 28 ;
29 [label="traffic_density <= 0.148\ngini = 0.358\nsamples = 11630\nvalue = [2721, 8909]\nclass = No Accident", fillcolor="#75bbed"] ;
25 -> 29 ;
30 [label="gini = 0.224\nsamples = 685\nvalue = [88, 597]\nclass = No Accident", fillcolor="#56abe9"] ;
29 -> 30 ;
31 [label="gini = 0.365\nsamples = 10945\nvalue = [2633, 8312]\nclass = No Accident", fillcolor="#78bced"] ;
29 -> 31 ;
32 [label="AADT <= 13967.773\ngini = 0.23\nsamples = 28069\nvalue = [24351, 3718]\nclass = Accident", fillcolor="#e99457"] ;
0 -> 32 [labeldistance=2.5, labelangle=-45, headlabel="False"] ;
33 [label="traffic_density <= 2788.821\ngini = 0.006\nsamples = 16009\nvalue = [15959, 50]\nclass = Accident", fillcolor="#e5813a"] ;
32 -> 33 ;
34 [label="gini = 0.0\nsamples = 15943\nvalue = [15943, 0]\nclass = Accident", fillcolor="#e58139"] ;
33 -> 34 ;
35 [label="Rt_Sidewlk <= 11.0\ngini = 0.367\nsamples = 66\nvalue = [16, 50]\nclass = No Accident", fillcolor="#78bced"] ;
33 -> 35 ;
36 [label="ROW_Width <= 69.0\ngini = 0.346\nsamples = 63\nvalue = [14, 49]\nclass = No Accident", fillcolor="#72b9ec"] ;
35 -> 36 ;
37 [label="gini = 0.384\nsamples = 54\nvalue = [14, 40]\nclass = No Accident", fillcolor="#7ebfee"] ;
36 -> 37 ;
38 [label="gini = 0.0\nsamples = 9\nvalue = [0, 9]\nclass = No Accident", fillcolor="#399de5"] ;
36 -> 38 ;
39 [label="traffic_density <= 117270.707\ngini = 0.444\nsamples = 3\nvalue = [2, 1]\nclass = Accident", fillcolor="#f2c09c"] ;
35 -> 39 ;
40 [label="gini = 0.0\nsamples = 2\nvalue = [2, 0]\nclass = Accident", fillcolor="#e58139"] ;
39 -> 40 ;
41 [label="gini = 0.0\nsamples = 1\nvalue = [0, 1]\nclass = No Accident", fillcolor="#399de5"] ;
39 -> 41 ;
42 [label="AADT <= 13970.273\ngini = 0.423\nsamples = 12060\nvalue = [8392, 3668]\nclass = Accident", fillcolor="#f0b890"] ;
32 -> 42 ;
43 [label="Surface_Tp <= 5.5\ngini = 0.488\nsamples = 8537\nvalue = [4941, 3596]\nclass = Accident", fillcolor="#f8ddc9"] ;
42 -> 43 ;
44 [label="Rt_Sidewlk <= 5.24\ngini = 0.458\nsamples = 6034\nvalue = [3888, 2146]\nclass = Accident", fillcolor="#f3c7a6"] ;
43 -> 44 ;
45 [label="gini = 0.421\nsamples = 4711\nvalue = [3290, 1421]\nclass = Accident", fillcolor="#f0b78f"] ;
44 -> 45 ;
46 [label="gini = 0.495\nsamples = 1323\nvalue = [598, 725]\nclass = No Accident", fillcolor="#dceefa"] ;
44 -> 46 ;
47 [label="Rt_Sidewlk <= 2.5\ngini = 0.487\nsamples = 2503\nvalue = [1053, 1450]\nclass = No Accident", fillcolor="#c9e4f8"] ;
43 -> 47 ;
48 [label="gini = 0.47\nsamples = 1168\nvalue = [441, 727]\nclass = No Accident", fillcolor="#b1d8f5"] ;
47 -> 48 ;
49 [label="gini = 0.497\nsamples = 1335\nvalue = [612, 723]\nclass = No Accident", fillcolor="#e1f0fb"] ;
47 -> 49 ;
50 [label="traffic_density <= 2757.363\ngini = 0.04\nsamples = 3523\nvalue = [3451, 72]\nclass = Accident", fillcolor="#e6843d"] ;
42 -> 50 ;
51 [label="gini = 0.0\nsamples = 3430\nvalue = [3430, 0]\nclass = Accident", fillcolor="#e58139"] ;
50 -> 51 ;
52 [label="Lt_Sidewlk <= 13.0\ngini = 0.35\nsamples = 93\nvalue = [21, 72]\nclass = No Accident", fillcolor="#73baed"] ;
50 -> 52 ;
53 [label="gini = 0.32\nsamples = 90\nvalue = [18, 72]\nclass = No Accident", fillcolor="#6ab6ec"] ;
52 -> 53 ;
54 [label="gini = 0.0\nsamples = 3\nvalue = [3, 0]\nclass = Accident", fillcolor="#e58139"] ;
52 -> 54 ;
}